Language model created by QuickLM on Mon May 18 07:48:28 EDT 2020
Copyright (c) 1996-2010 Carnegie Mellon University and Alexander I. Rudnicky

The model is in standard ARPA format, designed by Doug Paul while he was at MITRE.

The code that was used to produce this language model is available in Open Source.
Please visit http://www.speech.cs.cmu.edu/tools/ for more information

The (fixed) discount mass is 0.5. The backoffs are computed using the ratio method.
This model based on a corpus of 16 sentences and 18 words

\data\
ngram 1=18
ngram 2=32
ngram 3=16

\1-grams:
-0.7782 </s> -0.3010
-0.7782 <s> -0.2218
-1.9823 ARE-YOU-FROM -0.2218
-1.9823 COLOR-YOU-LIKE -0.2218
-1.9823 GO-TO-THE-BEDROOM -0.2218
-1.9823 GO-TO-THE-DINING-ROOM -0.2218
-1.9823 GO-TO-THE-KITCHEN -0.2218
-1.9823 GO-TO-THE-LIVING-ROOM -0.2218
-1.9823 GO-TO-THE-STUDY -0.2218
-1.9823 HOW-OLD-ARE-YOU -0.2218
-1.9823 INTRODUCE-YOURSELF -0.2218
-1.9823 PLEASE-FIND-YANG-YUHANG -0.2218
-1.9823 PLEASE-RETURN-BACK -0.2218
-1.9823 RECOGNIZE-BLUE -0.2218
-1.9823 SPORT-YOU-LIKE -0.2218
-1.9823 TAKE-A-PHOTO -0.2218
-1.9823 TELL-A-JOKE -0.2218
-1.9823 WHAT-BLUE-IS-LIKE -0.2218

\2-grams:
-1.5051 <s> ARE-YOU-FROM 0.0000
-1.5051 <s> COLOR-YOU-LIKE 0.0000
-1.5051 <s> GO-TO-THE-BEDROOM 0.0000
-1.5051 <s> GO-TO-THE-DINING-ROOM 0.0000
-1.5051 <s> GO-TO-THE-KITCHEN 0.0000
-1.5051 <s> GO-TO-THE-LIVING-ROOM 0.0000
-1.5051 <s> GO-TO-THE-STUDY 0.0000
-1.5051 <s> HOW-OLD-ARE-YOU 0.0000
-1.5051 <s> INTRODUCE-YOURSELF 0.0000
-1.5051 <s> PLEASE-FIND-YANG-YUHANG 0.0000
-1.5051 <s> PLEASE-RETURN-BACK 0.0000
-1.5051 <s> RECOGNIZE-BLUE 0.0000
-1.5051 <s> SPORT-YOU-LIKE 0.0000
-1.5051 <s> TAKE-A-PHOTO 0.0000
-1.5051 <s> TELL-A-JOKE 0.0000
-1.5051 <s> WHAT-BLUE-IS-LIKE 0.0000
-0.3010 ARE-YOU-FROM </s> -0.3010
-0.3010 COLOR-YOU-LIKE </s> -0.3010
-0.3010 GO-TO-THE-BEDROOM </s> -0.3010
-0.3010 GO-TO-THE-DINING-ROOM </s> -0.3010
-0.3010 GO-TO-THE-KITCHEN </s> -0.3010
-0.3010 GO-TO-THE-LIVING-ROOM </s> -0.3010
-0.3010 GO-TO-THE-STUDY </s> -0.3010
-0.3010 HOW-OLD-ARE-YOU </s> -0.3010
-0.3010 INTRODUCE-YOURSELF </s> -0.3010
-0.3010 PLEASE-FIND-YANG-YUHANG </s> -0.3010
-0.3010 PLEASE-RETURN-BACK </s> -0.3010
-0.3010 RECOGNIZE-BLUE </s> -0.3010
-0.3010 SPORT-YOU-LIKE </s> -0.3010
-0.3010 TAKE-A-PHOTO </s> -0.3010
-0.3010 TELL-A-JOKE </s> -0.3010
-0.3010 WHAT-BLUE-IS-LIKE </s> -0.3010

\3-grams:
-0.3010 <s> ARE-YOU-FROM </s>
-0.3010 <s> COLOR-YOU-LIKE </s>
-0.3010 <s> GO-TO-THE-BEDROOM </s>
-0.3010 <s> GO-TO-THE-DINING-ROOM </s>
-0.3010 <s> GO-TO-THE-KITCHEN </s>
-0.3010 <s> GO-TO-THE-LIVING-ROOM </s>
-0.3010 <s> GO-TO-THE-STUDY </s>
-0.3010 <s> HOW-OLD-ARE-YOU </s>
-0.3010 <s> INTRODUCE-YOURSELF </s>
-0.3010 <s> PLEASE-FIND-YANG-YUHANG </s>
-0.3010 <s> PLEASE-RETURN-BACK </s>
-0.3010 <s> RECOGNIZE-BLUE </s>
-0.3010 <s> SPORT-YOU-LIKE </s>
-0.3010 <s> TAKE-A-PHOTO </s>
-0.3010 <s> TELL-A-JOKE </s>
-0.3010 <s> WHAT-BLUE-IS-LIKE </s>

\end\
